label,x0,y0,x1,y1,x2,y2,x3,y3,x4,y4,x5,y5,x6,y6,x7,y7,x8,y8,x9,y9,x10,y10,x11,y11,x12,y12,x13,y13,x14,y14,x15,y15,x16,y16,x17,y17,x18,y18,x19,y19,x20,y20
thumbs_up,0.000000,0.000000,0.168331,-0.265992,0.369934,-0.466941,0.525354,-0.652904,0.557284,-0.830322,0.791877,-0.270395,0.914863,-0.192261,0.812083,-0.170420,0.706509,-0.189291,0.825137,-0.091370,0.863457,-0.033984,0.747306,-0.028163,0.644574,-0.044597,0.779719,0.080951,0.835598,0.105676,0.725178,0.105070,0.606211,0.081902,0.698517,0.231317,0.801320,0.247522,0.700398,0.232501,0.586283,0.204473
thumbs_up,0.000000,0.000000,0.168827,-0.224065,0.391241,-0.408094,0.538128,-0.573726,0.582684,-0.711942,0.754139,-0.298080,0.982695,-0.185229,0.872061,-0.148493,0.742430,-0.165866,0.767740,-0.158703,0.972767,-0.053252,0.857740,-0.028651,0.732397,-0.058574,0.738077,-0.016121,0.917912,0.063892,0.806632,0.080652,0.690369,0.053074,0.685536,0.115488,0.813142,0.166420,0.700712,0.173825,0.597424,0.149530
thumbs_up,0.000000,0.000000,0.102873,-0.263788,0.266859,-0.489660,0.387142,-0.686705,0.429662,-0.863215,0.773025,-0.260922,0.990566,-0.137034,0.879355,-0.109181,0.743247,-0.137452,0.780617,-0.076128,0.967705,0.016939,0.842703,0.024675,0.704898,0.006936,0.716982,0.103671,0.897891,0.159591,0.789389,0.165042,0.654364,0.153177,0.613564,0.265480,0.764533,0.310564,0.670022,0.289721,0.568435,0.259927
thumbs_up,0.000000,0.000000,0.110591,-0.337055,0.273005,-0.579044,0.390680,-0.797459,0.329550,-0.944138,0.458638,-0.309820,0.656558,-0.416001,0.557128,-0.431312,0.465222,-0.410656,0.487933,-0.075977,0.689593,-0.239180,0.605897,-0.269576,0.521863,-0.241918,0.490183,0.120765,0.659253,-0.052358,0.594867,-0.091232,0.515264,-0.062616,0.479436,0.269988,0.622855,0.108879,0.572300,0.060755,0.506881,0.075105
thumbs_up,0.000000,0.000000,0.263146,-0.221702,0.498767,-0.369478,0.657991,-0.531278,0.655795,-0.685751,0.745709,-0.116498,0.993798,-0.111199,0.864213,-0.132581,0.740638,-0.141840,0.709559,0.061135,0.947202,0.036116,0.846688,-0.002185,0.732979,-0.000613,0.625964,0.205365,0.841409,0.171087,0.761444,0.142986,0.647670,0.140744,0.535428,0.320999,0.727414,0.295808,0.650801,0.262182,0.551673,0.255979
thumbs_up,0.000000,0.000000,0.123420,-0.263909,0.332031,-0.478121,0.520139,-0.645653,0.597168,-0.802116,0.649979,-0.331908,0.934683,-0.294796,0.817924,-0.267616,0.682216,-0.270707,0.669046,-0.151487,0.971442,-0.124803,0.842312,-0.111270,0.698077,-0.117411,0.654017,0.018483,0.952947,0.040686,0.834231,0.043308,0.691561,0.032010,0.610600,0.175009,0.856229,0.188863,0.745198,0.179118,0.624583,0.165923
thumbs_up,0.000000,0.000000,0.118911,-0.218903,0.306890,-0.422361,0.405245,-0.607908,0.438345,-0.781513,0.757194,-0.312687,0.993032,-0.117842,0.866398,-0.092844,0.737862,-0.137465,0.747467,-0.148090,0.926087,0.016957,0.800129,0.021004,0.678161,-0.027351,0.697408,0.013211,0.841529,0.138101,0.720542,0.135855,0.601871,0.091552,0.627165,0.156487,0.750286,0.234022,0.638186,0.223313,0.535492,0.182962
thumbs_up,0.000000,0.000000,0.105300,-0.311011,0.278017,-0.534049,0.423302,-0.701370,0.470494,-0.882403,0.534611,-0.257693,0.654411,-0.140001,0.577318,-0.103860,0.503285,-0.129062,0.516080,-0.031259,0.641318,0.063777,0.561807,0.060094,0.475520,0.026949,0.469364,0.168695,0.594964,0.239523,0.521932,0.226509,0.433171,0.190706,0.404827,0.344426,0.528190,0.399708,0.468485,0.370890,0.393772,0.330018
thumbs_up,0.000000,0.000000,-0.034941,-0.300573,0.123986,-0.555578,0.274515,-0.775657,0.333332,-0.942809,0.456534,-0.601662,0.452784,-0.538509,0.358222,-0.448702,0.307784,-0.403114,0.606883,-0.439621,0.565127,-0.375701,0.462449,-0.304861,0.396041,-0.261828,0.688497,-0.265520,0.653668,-0.235670,0.551369,-0.200585,0.462008,-0.159683,0.736693,-0.104458,0.709473,-0.115605,0.610308,-0.092416,0.533940,-0.059185
